{
  "inputType": "image",
  "inputShape": {
    "c": 1,
    "h": 4,
    "w": 4
  },
  "layersConfig": [
    {
      "numNeurons": 16,
      "actvFunc": "relu"
    },
    {
      "numNeurons": 8,
      "actvFunc": "relu"
    },
    {
      "numNeurons": 2,
      "actvFunc": "sigmoid"
    }
  ],
  "costFunctionConfig": {
    "type": "crossEntropy"
  },
  "parameters": {
    "weights": [
      [],
      [
        [
          0.13942679845788375,
          -0.47498924477733306,
          -0.22497068163088074,
          -0.27678926185117725,
          0.2364712141640124,
          0.1766994874229113,
          0.3921795677048454,
          -0.41306116737058385,
          -0.07807818031472957,
          -0.47020278056192966,
          -0.28136202519639664,
          0.005355288103362388,
          -0.4734640303161364,
          -0.3011623493133515,
          0.1498844377795232,
          0.04494148060321668
        ],
        [
          -0.2795593779593033,
          0.08926568387590872,
          0.30943045667782665,
          -0.493501240321939,
          0.3058192518328079,
          0.19813939498822686,
          -0.15974948348200813,
          -0.34452050018821845,
          0.4572130722067812,
          -0.16340545488737324,
          -0.4072541566198521,
          -0.403283623166536,
          0.3474943663474598,
          0.10372603136689107,
          0.3071282732743802,
          0.22973178669381789
        ],
        [
          0.03622809145470074,
          0.4731157639793706,
          -0.12146562279164652,
          0.052040631273227,
          0.32940466425299486,
          0.11851975236424606,
          0.36170690031077724,
          0.07735214525676204,
          0.20457183621492347,
          -0.4541756163443378,
          -0.27210172434845314,
          -0.21061203639789283,
          -0.4202080230763725,
          -0.2672091136389698,
          -0.3989985705902709,
          -0.22202639688990788
        ],
        [
          0.13568444426440018,
          -0.13516782102991576,
          -0.12981903288311736,
          -0.2904929692285123,
          -0.23302217795088664,
          0.436654587712494,
          0.14803538524659354,
          0.10913100566698819,
          -0.328861351801903,
          0.22912679795034918,
          -0.3365975062380716,
          -0.12054455824235222,
          0.48952335063659524,
          0.13999975985409285,
          0.05694974377464623,
          0.1846142509898746
        ],
        [
          0.3428519201898096,
          0.2759999115462448,
          -0.27095192803589563,
          -0.46789975609596224,
          -0.18454695194091808,
          -0.23225912402429727,
          -0.28901715641367354,
          0.44290971433505444,
          0.37636762647266886,
          -0.18532211920152208,
          0.15543866529488004,
          -0.10436809893933574,
          0.4145475897405435,
          -0.0411481474126012,
          -0.23511983350194754,
          -0.25337249230601655
        ],
        [
          0.06136813416315079,
          -0.23725839147706473,
          0.08458599022354052,
          0.397822883602477,
          -0.10059949485960273,
          -0.28067924084271667,
          0.49753760649511025,
          0.009526293676464515,
          -0.4090905878262061,
          -0.45288362457526543,
          -0.39035086964934085,
          0.12744604170309004,
          0.2920793643629641,
          -0.07784003320031596,
          -0.43647229384804287,
          -0.11838071349346324
        ],
        [
          0.4961213802400968,
          0.029114345099137018,
          0.47107837761361815,
          0.36077970223449807,
          -0.48851897805718036,
          0.22072181936019464,
          0.18171036902657478,
          0.03697033040879516,
          -0.23317481004745721,
          0.14096179857980806,
          -0.38844782640412356,
          -0.06523474933089501,
          -0.046276293670793556,
          0.45381592752108013,
          0.37585294037819406,
          -0.23661094924890924
        ],
        [
          0.0005861130502983203,
          -0.32134811946986863,
          0.4126278393448205,
          0.3705185698367669,
          -0.2015552085513671,
          0.13894949486600516,
          0.10897021143817232,
          -0.3471607314503652,
          0.26251080007515126,
          0.039379030119625735,
          0.2786264786305582,
          0.030353672195177483,
          -0.4994281038720565,
          -0.1758439429953269,
          -0.4805232576141677,
          0.4290986162646171
        ]
      ],
      [
        [
          0.3787218778231842,
          0.33166552936117943,
          -0.19248587459733857,
          -0.44207483350581245,
          0.37800959920404054,
          0.4469494452979941,
          -0.4143465479321212,
          -0.014009536683386226
        ],
        [
          -0.4307874815316164,
          0.26060216525723157,
          0.26583442930698775,
          -0.3716085355002372,
          -0.024717621901268694,
          0.0498035934949439,
          -0.2349433710599409,
          0.37243304108525743
        ]
      ]
    ],
    "biases": [
      [],
      [
        -0.015372411959822613,
        -0.05764035891158359,
        0.00785921775589167,
        0.045986213817995225,
        -0.05976978732206082,
        -0.03765674173982101,
        0.09902987133217894,
        0.02997561152789069
      ],
      [
        -0.012379983217099183,
        0.0035151682071181273
      ]
    ]
  }
}